{"learner":{"attributes":{"best_iteration":"19","best_ntree_limit":"20","scikit_learn":"{\"use_label_encoder\": null, \"n_estimators\": 20, \"objective\": \"binary:logistic\", \"max_depth\": 4, \"max_leaves\": null, \"max_bin\": null, \"grow_policy\": null, \"learning_rate\": 0.2, \"verbosity\": null, \"booster\": null, \"tree_method\": null, \"gamma\": null, \"min_child_weight\": null, \"max_delta_step\": null, \"subsample\": null, \"sampling_method\": null, \"colsample_bytree\": null, \"colsample_bylevel\": null, \"colsample_bynode\": null, \"reg_alpha\": null, \"reg_lambda\": null, \"scale_pos_weight\": null, \"base_score\": null, \"missing\": NaN, \"num_parallel_tree\": null, \"random_state\": 1, \"n_jobs\": -1, \"monotone_constraints\": null, \"interaction_constraints\": null, \"importance_type\": null, \"gpu_id\": null, \"validate_parameters\": null, \"predictor\": null, \"enable_categorical\": false, \"feature_types\": null, \"max_cat_to_onehot\": null, \"max_cat_threshold\": null, \"eval_metric\": null, \"early_stopping_rounds\": null, \"callbacks\": null, \"classes_\": [0, 1], \"n_classes_\": 2, \"_estimator_type\": \"classifier\"}"},"feature_names":["high","low","open","volumefrom","volumeto","replyCount","retweetCount","likeCount","quoteCount","followersCount","listedCount","isReplied","isMentioned","charCount","mentionsCount","day","year","month","quarter","day_of_week","day_of_year","close_ratio2","Trend_2","close_ratio7","Trend_7","close_ratio14","Trend_14","close_ratio50","Trend_50","close_ratio90","Trend_90","isPandemic"],"feature_types":["float","float","float","float","float","int","int","int","int","int","int","float","float","float","float","int","int","int","int","int","int","float","float","float","float","float","float","float","float","float","float","int"],"gradient_booster":{"model":{"gbtree_model_param":{"num_parallel_tree":"1","num_trees":"20","size_leaf_vector":"0"},"tree_info":[0,0,0,0,0,0,0,0,0,0,0,0,0,0,0,0,0,0,0,0],"trees":[{"base_weights":[1.2890366E-1,3.5453317E-1,-8.831169E-2,9.655172E-1,2.3923445E-1,-2.599278E-1,3.4545454E-1,-8E-1,1.0909091E0,-6.802721E-2,5.0445104E-1,-3.2595575E-1,2.9508197E-1,-4.6153846E-1,5.813953E-1,-0E0,1.25E0,1.1428572E0,-1.9259259E-1,8.287293E-1,1.25E-1,-2.5108224E-1,-1.1794872E0,5.925926E-1,-1.2727273E0,3.6363637E-1,-9.411765E-1,7.368421E-1,-5E-1],"categories":[],"categories_nodes":[],"categories_segments":[],"categories_sizes":[],"default_left":[1,1,0,1,1,1,0,0,1,1,1,1,0,1,1,0,0,0,0,0,0,0,0,0,0,0,0,0,0],"id":0,"left_children":[1,3,5,7,9,11,13,-1,15,17,19,21,23,25,27,-1,-1,-1,-1,-1,-1,-1,-1,-1,-1,-1,-1,-1,-1],"loss_changes":[1.8471394E1,1.2783854E1,1.4419739E1,7.2927876E0,1.2808013E1,5.1716747E0,1.07404785E1,0E0,4.772728E0,1.1306425E1,1.026318E1,7.6442804E0,7.867417E0,5.4874535E0,7.596695E0,0E0,0E0,0E0,0E0,0E0,0E0,0E0,0E0,0E0,0E0,0E0,0E0,0E0,0E0],"parents":[2147483647,0,0,1,1,2,2,3,3,4,4,5,5,6,6,8,8,9,9,10,10,11,11,12,12,13,13,14,14],"right_children":[2,4,6,8,10,12,14,-1,16,18,20,22,24,26,28,-1,-1,-1,-1,-1,-1,-1,-1,-1,-1,-1,-1,-1,-1],"split_conditions":[1.0007296E0,6.2799053E3,5.25E1,8.0936056E7,2.0195E3,4.3672E4,1.0026202E0,-1.6000001E-1,3.5197651E3,8.490052E-1,3.3259316E4,3.47763E5,1.0253336E0,5.4E2,3.415524E4,-0E0,2.5E-1,2.2857144E-1,-3.851852E-2,1.6574585E-1,2.5E-2,-5.0216448E-2,-2.3589745E-1,1.18518524E-1,-2.5454545E-1,7.272728E-2,-1.882353E-1,1.4736842E-1,-1E-1],"split_indices":[21,1,30,4,16,6,25,0,1,25,1,7,21,5,2,0,0,0,0,0,0,0,0,0,0,0,0,0,0],"split_type":[0,0,0,0,0,0,0,0,0,0,0,0,0,0,0,0,0,0,0,0,0,0,0,0,0,0,0,0,0],"sum_hessian":[3.7525E2,1.8375E2,1.915E2,2.8E1,1.5575E2,1.375E2,5.4E1,1.5E0,2.65E1,7.25E1,8.325E1,1.2325E2,1.425E1,1.2E1,4.2E1,3.5E0,2.3E1,6E0,6.65E1,4.425E1,3.9E1,1.145E2,8.75E0,1.25E1,1.75E0,4.5E0,7.5E0,3.7E1,5E0],"tree_param":{"num_deleted":"0","num_feature":"32","num_nodes":"29","size_leaf_vector":"0"}},{"base_weights":[1.0355737E-1,2.87663E-1,-7.343686E-2,8.916305E-1,2.0956367E-1,-2.1147652E-1,2.76655E-1,-7.069072E-1,1.0519702E0,-5.2748793E-3,4.078111E-1,-2.4237749E-1,7.120925E-1,-5.692255E-1,4.2746586E-1,-0E0,1.2854738E0,3.570098E-1,-3.3617172E-1,5.2662885E-1,-5.17785E-1,4.8860215E-2,-3.472088E-1,-4.0030733E-1,1.3468306E0,2.976514E-1,-1.1388228E0,5.5174536E-1,-4.7367185E-1],"categories":[],"categories_nodes":[],"categories_segments":[],"categories_sizes":[],"default_left":[1,1,0,1,1,1,0,0,1,1,0,0,0,1,1,0,0,0,0,0,0,0,0,0,0,0,0,0,0],"id":1,"left_children":[1,3,5,7,9,11,13,-1,15,17,19,21,23,25,27,-1,-1,-1,-1,-1,-1,-1,-1,-1,-1,-1,-1,-1,-1],"loss_changes":[1.2238283E1,8.491095E0,9.334826E0,6.064234E0,6.996279E0,4.117719E0,7.223253E0,0E0,4.7329807E0,9.686005E0,9.666738E0,4.123547E0,3.87843E0,4.6387033E0,5.5258465E0,0E0,0E0,0E0,0E0,0E0,0E0,0E0,0E0,0E0,0E0,0E0,0E0,0E0,0E0],"parents":[2147483647,0,0,1,1,2,2,3,3,4,4,5,5,6,6,8,8,9,9,10,10,11,11,12,12,13,13,14,14],"right_children":[2,4,6,8,10,12,14,-1,16,18,20,22,24,26,28,-1,-1,-1,-1,-1,-1,-1,-1,-1,-1,-1,-1,-1,-1],"split_conditions":[1.0007296E0,5.608995E3,5.25E1,8.0936056E7,2.0195E3,1.7111E4,9.761117E-1,-1.4138144E-1,3.5197651E3,9.363657E-1,1.2571943E0,2.8195E3,4.035E2,2.155E2,3.415524E4,-0E0,2.5709477E-1,7.140196E-2,-6.7234345E-2,1.0532577E-1,-1.03557006E-1,9.772043E-3,-6.944176E-2,-8.0061466E-2,2.6936612E-1,5.9530284E-2,-2.2776456E-1,1.10349074E-1,-9.473437E-2],"split_indices":[21,0,30,4,16,8,25,0,1,27,27,6,13,6,2,0,0,0,0,0,0,0,0,0,0,0,0,0,0],"split_type":[0,0,0,0,0,0,0,0,0,0,0,0,0,0,0,0,0,0,0,0,0,0,0,0,0,0,0,0,0],"sum_hessian":[3.739246E2,1.8297382E2,1.9095076E2,1.9758486E1,1.6321533E2,1.372354E2,5.371537E1,1.4904408E0,1.8268044E1,7.8797134E1,8.441819E1,1.3350609E2,3.7293098E0,7.70795E0,4.600742E1,3.5E0,1.4768044E1,3.7576897E1,4.122024E1,7.519636E1,9.221833E0,3.5477627E1,9.802846E1,1.4890443E0,2.2402654E0,3.2457063E0,4.4622436E0,4.07721E1,5.2353196E0],"tree_param":{"num_deleted":"0","num_feature":"32","num_nodes":"29","size_leaf_vector":"0"}},{"base_weights":[8.3949886E-2,2.371411E-1,-5.7566207E-2,-8.4295076E-1,2.6811862E-1,-1.6591449E-1,2.6047683E-1,2.65864E-1,-1.256528E0,2.9727986E-1,-8.4240156E-1,-1.13384634E-1,-1.12384E0,5.4527E-1,-2.0117813E-1,3.506822E-1,-3.2878613E-1,-1.3592072E0,-8.700676E-2,-3.970517E-1,1.6746972E-2,5.275811E-2,-1.4255594E0,8.678534E-1,-5.2844644E-2,5.2020246E-1,-5.876858E-1],"categories":[],"categories_nodes":[],"categories_segments":[],"categories_sizes":[],"default_left":[1,0,0,0,1,0,0,0,0,1,1,0,1,0,1,0,0,0,0,0,0,0,0,0,0,0,0],"id":2,"left_children":[1,3,5,7,9,11,13,-1,-1,15,17,19,21,23,25,-1,-1,-1,-1,-1,-1,-1,-1,-1,-1,-1,-1],"loss_changes":[8.088707E0,6.2170525E0,6.7429566E0,2.734098E0,5.9119825E0,7.2006674E0,6.6563296E0,0E0,0E0,5.8354406E0,1.7299042E0,5.1440578E0,2.723031E0,6.0396214E0,5.8063087E0,0E0,0E0,0E0,0E0,0E0,0E0,0E0,0E0,0E0,0E0,0E0,0E0],"parents":[2147483647,0,0,1,1,2,2,3,3,4,4,5,5,6,6,9,9,10,10,11,11,12,12,13,13,14,14],"right_children":[2,4,6,8,10,12,14,-1,-1,16,18,20,22,24,26,-1,-1,-1,-1,-1,-1,-1,-1,-1,-1,-1,-1],"split_conditions":[1.0003455E0,2.634E3,1.3028467E0,7.46E2,6.1788438E4,1.2646915E0,8.089E3,5.3172804E-2,-2.513056E-1,1.2562982E0,3.118014E4,8.917743E-1,9.79667E3,1.0191038E0,8.5E0,7.013644E-2,-6.575723E-2,-2.7184144E-1,-1.7401353E-2,-7.941034E-2,3.3493943E-3,1.0551622E-2,-2.8511187E-1,1.7357068E-1,-1.0568929E-2,1.04040496E-1,-1.1753716E-1],"split_indices":[21,7,29,7,2,29,5,0,0,27,3,29,1,21,15,0,0,0,0,0,0,0,0,0,0,0,0],"split_type":[0,0,0,0,0,0,0,0,0,0,0,0,0,0,0,0,0,0,0,0,0,0,0,0,0,0,0],"sum_hessian":[3.714825E2,1.7805847E2,1.9342406E2,4.2336116E0,1.7382486E2,1.4463077E2,4.8793293E1,1.2471417E0,2.98647E0,1.7009073E2,3.7341218E0,1.3817216E2,6.458597E0,3.0065115E1,1.8728176E1,1.5712787E2,1.296287E1,1.7425902E0,1.9915316E0,4.2807404E1,9.536476E1,1.4865857E0,4.9720116E0,1.9238281E1,1.0826834E1,6.4130015E0,1.2315175E1],"tree_param":{"num_deleted":"0","num_feature":"32","num_nodes":"27","size_leaf_vector":"0"}},{"base_weights":[6.57049E-2,5.7003874E-1,3.4877326E-2,2.016706E-1,1.3537992E0,-2.0340376E-1,9.924597E-2,-5.504055E-1,7.110338E-1,1.5380298E0,5.250301E-1,-9.691534E-2,-1.3717923E0,6.590483E-1,5.9691023E-2,-1.243134E-2,-1.3690927E0,1.0910134E0,-2.9693243E-1,2.8205466E-1,-4.823094E-1,-1.6464111E0,-1.3801734E-1,-6.711971E-1,8.6200804E-1,5.507493E-1,4.4460837E-3],"categories":[],"categories_nodes":[],"categories_segments":[],"categories_sizes":[],"default_left":[0,0,0,1,0,1,1,1,0,0,0,0,0,1,1,0,0,0,0,0,0,0,0,0,0,0,0],"id":3,"left_children":[1,3,5,7,9,11,13,15,17,-1,-1,19,21,23,25,-1,-1,-1,-1,-1,-1,-1,-1,-1,-1,-1,-1],"loss_changes":[5.744501E0,5.8743324E0,5.395635E0,6.3902335E0,2.052002E-1,9.182011E0,6.0854635E0,3.0162127E0,4.0669494E0,0E0,0E0,1.0314402E1,1.8658171E0,5.4801702E0,7.035977E0,0E0,0E0,0E0,0E0,0E0,0E0,0E0,0E0,0E0,0E0,0E0,0E0],"parents":[2147483647,0,0,1,1,2,2,3,3,4,4,5,5,6,6,7,7,8,8,11,11,12,12,13,13,14,14],"right_children":[2,4,6,8,10,12,14,16,18,-1,-1,20,22,24,26,-1,-1,-1,-1,-1,-1,-1,-1,-1,-1,-1,-1],"split_conditions":[7.206508E-1,7.591753E-1,8.917743E-1,1.715E2,6.237E3,1.7999944E9,9.077804E-1,1.7555E3,7.304616E-1,3.0760595E-1,1.0500602E-1,9.99316E-1,4.967705E5,7.35031E3,6.24313E3,-2.486268E-3,-2.7381855E-1,2.182027E-1,-5.9386488E-2,5.6410935E-2,-9.6461885E-2,-3.2928222E-1,-2.7603468E-2,-1.3423942E-1,1.724016E-1,1.1014986E-1,8.892167E-4],"split_indices":[29,27,29,13,5,4,25,6,27,0,0,21,7,2,1,0,0,0,0,0,0,0,0,0,0,0,0],"split_type":[0,0,0,0,0,0,0,0,0,0,0,0,0,0,0,0,0,0,0,0,0,0,0,0,0,0,0],"sum_hessian":[3.697622E2,2.0292307E1,3.494699E2,1.4659596E1,5.632711E0,7.386714E1,2.7560275E2,5.8869395E0,8.772656E0,3.908152E0,1.7245591E0,6.868963E1,5.177512E0,1.7154976E1,2.5844778E2,4.1651373E0,1.7218024E0,6.3111215E0,2.4615355E0,3.4768658E1,3.3920967E1,3.961332E0,1.2161798E0,1.9655111E0,1.51894655E1,2.522853E1,2.3321925E2],"tree_param":{"num_deleted":"0","num_feature":"32","num_nodes":"27","size_leaf_vector":"0"}},{"base_weights":[5.3100076E-2,6.387707E-2,-1.2929878E0,2.672731E-1,2.1804716E-3,1.7924342E-1,1.0346882E0,7.0752704E-1,-2.2049049E-2,2.8137586E-1,-6.7587906E-1,1.2979004E0,-2.934973E-1,1.243783E-1,1.4753742E0,-8.530296E-1,2.6268253E-2],"categories":[],"categories_nodes":[],"categories_segments":[],"categories_sizes":[],"default_left":[1,1,0,0,1,0,1,1,1,0,0,0,0,0,0,0,0],"id":4,"left_children":[1,3,-1,5,7,9,11,13,15,-1,-1,-1,-1,-1,-1,-1,-1],"loss_changes":[5.437675E0,4.606905E0,0E0,5.586744E0,4.847348E0,6.9902267E0,3.3815413E0,4.034245E0,1.1035786E1,0E0,0E0,0E0,0E0,0E0,0E0,0E0,0E0],"parents":[2147483647,0,0,1,1,3,3,4,4,5,5,6,6,7,7,8,8],"right_children":[2,4,-1,6,8,10,12,14,16,-1,-1,-1,-1,-1,-1,-1,-1],"split_conditions":[6.548753E4,9.9074143E-1,-2.5859758E-1,9.897338E-1,1.5528311E4,9.8806834E-1,1.2100362E0,1.0896E4,1.9001344E4,5.627517E-2,-1.3517581E-1,2.595801E-1,-5.869946E-2,2.4875661E-2,2.9507485E-1,-1.7060593E-1,5.2536507E-3],"split_indices":[0,21,0,21,3,21,29,6,3,0,0,0,0,0,0,0,0],"split_type":[0,0,0,0,0,0,0,0,0,0,0,0,0,0,0,0,0],"sum_hessian":[3.6814337E2,3.6616437E2,1.9790248E0,8.4444145E1,2.817202E2,7.686103E1,7.58311E0,8.419476E0,2.7330075E2,6.9259865E1,7.6011705E0,6.347917E0,1.2351928E0,5.4456835E0,2.9737923E0,1.4102664E1,2.591981E2],"tree_param":{"num_deleted":"0","num_feature":"32","num_nodes":"17","size_leaf_vector":"0"}},{"base_weights":[4.276541E-2,5.2125793E-2,-1.1419762E0,7.475602E-2,-4.3589294E-1,4.1028295E-2,9.4879794E-1,-6.7345417E-1,3.6047894E-1,5.6219235E-2,-9.1006845E-1,-2.4868087E-1,1.2152138E0,-9.932721E-1,2.380937E-1,8.987538E-1,-4.2862976E-1],"categories":[],"categories_nodes":[],"categories_segments":[],"categories_sizes":[],"default_left":[1,1,0,1,0,1,0,1,0,0,0,0,0,0,0,0,0],"id":5,"left_children":[1,3,-1,5,7,9,11,13,15,-1,-1,-1,-1,-1,-1,-1,-1],"loss_changes":[4.141835E0,4.0767784E0,0E0,1.0302913E1,3.340646E0,4.946542E0,4.4461E0,4.0150094E0,2.259974E0,0E0,0E0,0E0,0E0,0E0,0E0,0E0,0E0],"parents":[2147483647,0,0,1,1,3,3,4,4,5,5,6,6,7,7,8,8],"right_children":[2,4,-1,6,8,10,12,14,16,-1,-1,-1,-1,-1,-1,-1,-1],"split_conditions":[6.548753E4,2.287E3,-2.2839525E-1,2.2858184E9,3.726E3,1.853E3,1.504E3,1.1794355E4,2.07472E5,1.1243847E-2,-1.8201369E-1,-4.9736176E-2,2.4304275E-1,-1.9865443E-1,4.7618743E-2,1.7975077E-1,-8.5725956E-2],"split_indices":[0,13,0,9,13,13,8,0,7,0,0,0,0,0,0,0,0],"split_type":[0,0,0,0,0,0,0,0,0,0,0,0,0,0,0,0,0],"sum_hessian":[3.6711932E2,3.6519003E2,1.9292833E0,3.4981534E2,1.5374691E1,3.3782617E2,1.1989168E1,1.1961015E1,3.413676E0,3.3344135E2,4.384842E0,2.1940372E0,9.795132E0,8.788056E0,3.172958E0,1.9467742E0,1.4669017E0],"tree_param":{"num_deleted":"0","num_feature":"32","num_nodes":"17","size_leaf_vector":"0"}},{"base_weights":[3.359501E-2,4.4581833E-1,8.872873E-3,1.2403074E-1,1.150729E0,2.4538428E-1,-4.9616586E-2,-5.129217E-1,5.698993E-1,2.924778E-1,1.2701768E0,5.3274017E-2,6.415159E-1,-7.4428517E-1,-1.8306317E-2,-8.777558E-1,2.6168755E-1,1.0154365E0,-1.606936E-1,1.5437011E-1,-1.1991234E0,7.5415695E-1,-7.197659E-1,1.9640529E-1,-1.0950195E0,-3.5801165E-2,9.8146826E-1],"categories":[],"categories_nodes":[],"categories_segments":[],"categories_sizes":[],"default_left":[0,0,1,1,0,0,0,0,0,0,0,0,1,0,1,0,0,0,0,0,0,0,0,0,0,0,0],"id":6,"left_children":[1,3,5,7,9,11,13,15,17,-1,-1,19,21,23,25,-1,-1,-1,-1,-1,-1,-1,-1,-1,-1,-1,-1],"loss_changes":[3.7412922E0,4.5692153E0,4.822487E0,4.661054E0,2.835617E-1,5.2253428E0,6.0681534E0,2.168508E0,3.262816E0,0E0,0E0,6.2159123E0,3.9898796E0,4.1855655E0,4.732922E0,0E0,0E0,0E0,0E0,0E0,0E0,0E0,0E0,0E0,0E0,0E0,0E0],"parents":[2147483647,0,0,1,1,2,2,3,3,4,4,5,5,6,6,7,7,8,8,11,11,12,12,13,13,14,14],"right_children":[2,4,6,8,10,12,14,16,18,-1,-1,20,22,24,26,-1,-1,-1,-1,-1,-1,-1,-1,-1,-1,-1,-1],"split_conditions":[7.206508E-1,7.591753E-1,6.5E0,1.715E2,9.716177E-1,1.439718E6,7.601478E-1,9.1547316E-1,1.0007131E0,5.849556E-2,2.5403535E-1,1.41183E9,1.4390693E0,9.403065E-1,1.1573205E6,-1.7555116E-1,5.233751E-2,2.0308731E-1,-3.213872E-2,3.0874023E-2,-2.3982468E-1,1.5083139E-1,-1.4395319E-1,3.928106E-2,-2.190039E-1,-7.160233E-3,1.9629365E-1],"split_indices":[29,27,15,13,21,10,29,25,21,0,0,9,29,25,7,0,0,0,0,0,0,0,0,0,0,0,0],"split_type":[0,0,0,0,0,0,0,0,0,0,0,0,0,0,0,0,0,0,0,0,0,0,0,0,0,0,0],"sum_hessian":[3.6650394E2,1.977287E1,3.4673105E2,1.4383045E1,5.3898234E0,6.8112404E1,2.7861865E2,5.8605204E0,8.522524E0,1.0798091E0,4.3100142E0,4.6631977E1,2.1480425E1,1.1034276E1,2.6758438E2,3.8935387E0,1.9669819E0,5.0518665E0,3.4706578E0,4.3960163E1,2.671815E0,2.0250746E1,1.2296798E0,3.11627E0,7.918006E0,2.639301E2,3.6542678E0],"tree_param":{"num_deleted":"0","num_feature":"32","num_nodes":"27","size_leaf_vector":"0"}},{"base_weights":[2.7599886E-2,1.2747447E-1,-6.35843E-2,2.7799549E-2,3.8896155E-1,3.428724E-2,-2.807186E-1,-1.1830917E-1,3.5710806E-1,1.1478242E0,2.0023233E-1,-1.6539281E-2,9.0145195E-1,-7.594137E-1,-1.7609596E-2,1.989585E-1,-3.7153712E-1,7.5635403E-1,-1.7941926E-1,1.4299685E-1,1.3825891E0,2.8933486E-1,-1.009175E0,-2.925272E-1,1.3657135E-1,1.161633E0,-9.0925395E-2,1.2721089E-1,-1.0359762E0,1.6635332E-1,-6.3878477E-1],"categories":[],"categories_nodes":[],"categories_segments":[],"categories_sizes":[],"default_left":[1,0,1,1,0,1,1,1,0,0,1,1,1,0,1,0,0,0,0,0,0,0,0,0,0,0,0,0,0,0,0],"id":7,"left_children":[1,3,5,7,9,11,13,15,17,19,21,23,25,27,29,-1,-1,-1,-1,-1,-1,-1,-1,-1,-1,-1,-1,-1,-1,-1,-1],"loss_changes":[3.345969E0,4.556999E0,4.095422E0,6.19926E0,6.6863537E0,5.8952737E0,7.5239124E0,7.2555203E0,8.613129E0,2.0213022E0,4.589956E0,5.4070735E0,2.0175633E0,5.330717E0,4.636255E0,0E0,0E0,0E0,0E0,0E0,0E0,0E0,0E0,0E0,0E0,0E0,0E0,0E0,0E0,0E0,0E0],"parents":[2147483647,0,0,1,1,2,2,3,3,4,4,5,5,6,6,7,7,8,8,9,9,10,10,11,11,12,12,13,13,14,14],"right_children":[2,4,6,8,10,12,14,16,18,20,22,24,26,28,30,-1,-1,-1,-1,-1,-1,-1,-1,-1,-1,-1,-1,-1,-1,-1,-1],"split_conditions":[1.0003455E0,3.427915E5,4.5E0,1.1151757E0,4.348715E5,2.95E1,1.445E2,7.8650547E3,1.1879747E0,8.9205706E-1,6.0018258E4,1.0106492E0,1.2000746E0,1.4675E3,1.1975E3,3.97917E-2,-7.430743E-2,1.512708E-1,-3.5883855E-2,2.859937E-2,2.7651784E-1,5.7866972E-2,-2.0183499E-1,-5.8505442E-2,2.731427E-2,2.3232661E-1,-1.818508E-2,2.5442177E-2,-2.0719524E-1,3.3270665E-2,-1.2775695E-1],"split_indices":[21,7,19,29,7,15,20,1,27,27,2,23,27,5,13,0,0,0,0,0,0,0,0,0,0,0,0,0,0,0,0],"split_type":[0,0,0,0,0,0,0,0,0,0,0,0,0,0,0,0,0,0,0,0,0,0,0,0,0,0,0,0,0,0,0],"sum_hessian":[3.6551697E2,1.7425568E2,1.9126129E2,1.2696489E2,4.7290787E1,1.3241733E2,5.8843952E1,8.838892E1,3.8575962E1,8.406634E0,3.888415E1,1.2601238E2,6.404949E0,2.0202192E1,3.864176E1,3.9328636E1,4.9060284E1,2.1882685E1,1.669328E1,1.8968695E0,6.509765E0,3.6924515E1,1.9596342E0,4.463874E1,8.137364E1,4.939387E0,1.4655626E0,4.931725E0,1.5270467E1,3.0377554E1,8.264209E0],"tree_param":{"num_deleted":"0","num_feature":"32","num_nodes":"31","size_leaf_vector":"0"}},{"base_weights":[2.282493E-2,3.6320213E-2,-6.7246574E-1,7.8247744E-1,2.4037337E-2,4.0574682E-1,-1.0265453E0,-1.3590235E-1,1.1124666E0,-4.564291E-1,4.878259E-2,-1.1762733E0,-2.5261092E-1,9.463323E-1,-7.6417917E-1,7.409335E-2,-4.6761575E-1],"categories":[],"categories_nodes":[],"categories_segments":[],"categories_sizes":[],"default_left":[1,1,0,0,1,0,0,0,0,0,1,0,0,0,0,0,0],"id":8,"left_children":[1,3,5,7,9,-1,11,-1,-1,13,15,-1,-1,-1,-1,-1,-1],"loss_changes":[3.4462001E0,3.2684596E0,3.0868697E0,1.901959E0,4.229888E0,0E0,3.4584808E-1,0E0,0E0,8.247965E0,4.445531E0,0E0,0E0,0E0,0E0,0E0,0E0],"parents":[2147483647,0,0,1,1,2,2,3,3,4,4,6,6,9,9,10,10],"right_children":[2,4,6,8,10,-1,12,-1,-1,14,16,-1,-1,-1,-1,-1,-1],"split_conditions":[6.277635E4,5.5E0,1.2282436E0,9.821556E-1,2.25E1,8.114936E-2,7.5E0,-2.7180469E-2,2.2249332E-1,9.3374395E-1,1.0362091E0,-2.3525468E-1,-5.0522186E-2,1.8926646E-1,-1.5283583E-1,1.481867E-2,-9.352315E-2],"split_indices":[0,20,29,27,20,0,12,0,0,23,21,0,0,0,0,0,0],"split_type":[0,0,0,0,0,0,0,0,0,0,0,0,0,0,0,0,0],"sum_hessian":[3.6367264E2,3.5767804E2,5.994609E0,4.7770686E0,3.5290097E2,1.4458648E0,4.548744E0,1.4182246E0,3.3588438E0,1.6430618E1,3.3647034E2,3.3757899E0,1.1729541E0,2.5828192E0,1.3847798E1,3.2156564E2,1.4904705E1],"tree_param":{"num_deleted":"0","num_feature":"32","num_nodes":"17","size_leaf_vector":"0"}},{"base_weights":[1.818874E-2,4.6647465E-1,-1.5560888E-3,7.986197E-1,-3.4867805E-1,-1.5162706E-1,6.774712E-2,1.0076374E0,-2.987473E-1,-1.0206249E0,4.5855436E-1,-9.12437E-2,-1.4461943E0,-4.4525942E-1,1.1065245E-1,-1.4461376E-1,1.1880383E0,8.0227345E-2,-4.2372012E-1,3.543196E-1,-8.9941657E-1,3.6383587E-1,2.8686646E-2],"categories":[],"categories_nodes":[],"categories_segments":[],"categories_sizes":[],"default_left":[1,0,0,0,1,0,1,1,0,0,0,1,0,1,0,0,0,0,0,0,0,0,0],"id":9,"left_children":[1,3,5,7,9,11,13,15,-1,-1,-1,17,-1,19,21,-1,-1,-1,-1,-1,-1,-1,-1],"loss_changes":[3.2217662E0,4.4359155E0,3.6457257E0,2.873148E0,3.2568521E0,8.524321E0,5.3277287E0,2.1773891E0,0E0,0E0,0E0,6.1265745E0,0E0,7.112149E0,4.5987787E0,0E0,0E0,0E0,0E0,0E0,0E0,0E0,0E0],"parents":[2147483647,0,0,1,1,2,2,3,3,4,4,5,5,6,6,7,7,11,11,13,13,14,14],"right_children":[2,4,6,8,10,12,14,16,-1,-1,-1,18,-1,20,22,-1,-1,-1,-1,-1,-1,-1,-1],"split_conditions":[8.490052E-1,2.0475E3,4.5E0,1.42985E4,3.5E0,6.745E2,3.95E1,4.8215547E3,-5.974946E-2,-2.0412497E-1,9.171087E-2,1.95E1,-2.8923887E-1,1.15E1,9.8248124E-1,-2.8922752E-2,2.3760767E-1,1.604547E-2,-8.474403E-2,7.0863925E-2,-1.7988332E-1,7.2767176E-2,5.7373294E-3],"split_indices":[25,13,14,5,19,13,30,0,0,0,0,15,0,15,23,0,0,0,0,0,0,0,0],"split_type":[0,0,0,0,0,0,0,0,0,0,0,0,0,0,0,0,0,0,0,0,0,0,0],"sum_hessian":[3.6290475E2,1.4355387E1,3.4854938E2,1.0213883E1,4.1415033E0,1.097361E2,2.3881328E2,8.648377E0,1.565506E0,2.1158786E0,2.025625E0,1.05868484E2,3.8676128E0,1.7707855E1,2.2110542E2,1.197584E0,7.4507933E0,7.0346664E1,3.552182E1,6.4941783E0,1.1213676E1,5.323364E1,1.6787178E2],"tree_param":{"num_deleted":"0","num_feature":"32","num_nodes":"23","size_leaf_vector":"0"}},{"base_weights":[1.3858059E-2,1.144995E0,6.1800587E-3,-9.787283E-1,1.9806063E-2,-1.3193306E0,-2.148365E-1,1.9297554E-1,-3.792081E-2,3.2568282E-1,-3.42053E-1,-1.1639555E0,-1.2905605E-2],"categories":[],"categories_nodes":[],"categories_segments":[],"categories_sizes":[],"default_left":[0,0,0,0,0,0,0,0,0,0,0,0,0],"id":10,"left_children":[1,-1,3,5,7,-1,-1,9,11,-1,-1,-1,-1],"loss_changes":[3.1432006E0,0E0,4.868048E0,1.0044718E0,3.5794923E0,0E0,0E0,6.4663744E0,7.5575905E0,0E0,0E0,0E0,0E0],"parents":[2147483647,0,0,2,2,3,3,4,4,7,7,8,8],"right_children":[2,-1,4,6,8,-1,-1,10,12,-1,-1,-1,-1],"split_conditions":[5.185E2,2.28999E-1,6.7E1,1.0090462E0,1.4055E3,-2.6386613E-1,-4.29673E-2,1.0422678E0,1.531E3,6.513657E-2,-6.84106E-2,-2.327911E-1,-2.5811212E-3],"split_indices":[7,0,5,23,5,0,0,23,5,0,0,0,0],"split_type":[0,0,0,0,0,0,0,0,0,0,0,0,0],"sum_hessian":[3.6173157E2,1.4401448E0,3.6029144E2,3.9500198E0,3.563414E2,2.2290287E0,1.7209914E0,8.850391E1,2.678375E2,7.122796E1,1.7275946E1,4.8313026E0,2.630062E2],"tree_param":{"num_deleted":"0","num_feature":"32","num_nodes":"13","size_leaf_vector":"0"}},{"base_weights":[1.0268082E-2,4.740731E-2,-2.0986432E-1,7.534032E-1,1.7176153E-2,-4.733986E-1,2.2203697E-1,1.0601916E0,-1.5401359E-1,8.7968534E-1,6.069644E-4,5.3275794E-1,-7.172091E-1,4.4694796E-1,-5.860748E-1,2.7150502E-2,1.3823545E0,-1.0022004E0,5.4315335E-1,6.854899E-2,1.0709096E0,2.6015475E-2,-4.6858606E-1,1.1990715E0,-1.24220796E-1,-8.745534E-1,3.5863456E-1,-8.260408E-2,1.0283002E0,-1.1147692E0,3.939833E-1],"categories":[],"categories_nodes":[],"categories_segments":[],"categories_sizes":[],"default_left":[1,1,1,0,1,1,0,0,1,1,1,1,0,0,0,0,0,0,0,0,0,0,0,0,0,0,0,0,0,0,0],"id":11,"left_children":[1,3,5,7,9,11,13,15,17,19,21,23,25,27,29,-1,-1,-1,-1,-1,-1,-1,-1,-1,-1,-1,-1,-1,-1,-1,-1],"loss_changes":[2.97199E0,6.6208925E0,6.0790987E0,3.7097993E0,4.273633E0,8.456705E0,4.0006413E0,3.173256E0,2.9640753E0,8.0085707E-1,3.522391E0,3.2106485E0,4.8708773E0,5.213505E0,2.9839575E0,0E0,0E0,0E0,0E0,0E0,0E0,0E0,0E0,0E0,0E0,0E0,0E0,0E0,0E0,0E0,0E0],"parents":[2147483647,0,0,1,1,2,2,3,3,4,4,5,5,6,6,7,7,8,8,9,9,10,10,11,11,12,12,13,13,14,14],"right_children":[2,4,6,8,10,12,14,16,18,20,22,24,26,28,30,-1,-1,-1,-1,-1,-1,-1,-1,-1,-1,-1,-1,-1,-1,-1,-1],"split_conditions":[5.5E0,1.2990607E8,4.85E1,2.75E1,6.5E0,9.5934653E-1,1.2797663E0,2.6891987E8,1.0524694E8,5.607215E3,1.3184757E0,4.989411E4,1.0536966E0,1.4762E4,1.0731702E0,5.4301005E-3,2.764709E-1,-2.0044008E-1,1.0863067E-1,1.3709798E-2,2.1418193E-1,5.2030953E-3,-9.371721E-2,2.3981431E-1,-2.484416E-2,-1.7491068E-1,7.172691E-2,-1.6520817E-2,2.0566003E-1,-2.2295384E-1,7.879666E-2],"split_indices":[19,4,30,14,20,23,27,9,4,0,27,3,23,6,23,0,0,0,0,0,0,0,0,0,0,0,0,0,0,0,0],"split_type":[0,0,0,0,0,0,0,0,0,0,0,0,0,0,0,0,0,0,0,0,0,0,0,0,0,0,0,0,0,0,0],"sum_hessian":[3.6130493E2,3.0981903E2,5.14859E1,1.1739607E1,2.9807944E2,3.1915724E1,1.9570177E1,8.647584E0,3.092023E0,4.6364675E0,2.9344296E2,5.9941106E0,2.5921614E1,1.5658953E1,3.9112246E0,2.313485E0,6.3340993E0,1.1975399E0,1.894483E0,1.1436789E0,3.4927886E0,2.7926434E2,1.4178628E1,2.5662587E0,3.4278522E0,2.2777464E1,3.1441495E0,8.643513E0,7.01544E0,2.4513738E0,1.4598508E0],"tree_param":{"num_deleted":"0","num_feature":"32","num_nodes":"31","size_leaf_vector":"0"}},{"base_weights":[9.810786E-3,-6.526259E-2,1.0927546E-1,7.3428385E-2,-3.0398303E-1,1.045516E0,7.127852E-2,-1.2090888E-1,2.8211775E-1,-4.4358198E-2,-6.858913E-1,1.2494006E0,8.7704144E-2,1.0421936E-1,-6.623504E-1,4.8049748E-2,-7.34115E-1,7.4843323E-1,2.0126134E-2,8.813308E-1,-1.8620586E-1,-1.1782511E0,-1.815795E-1,1.4080489E0,4.0066922E-1,2.2070761E-1,-1.8246682E-1,2.2381689E-1,-9.028619E-1],"categories":[],"categories_nodes":[],"categories_segments":[],"categories_sizes":[],"default_left":[0,0,0,1,1,1,1,1,1,0,1,0,0,1,0,0,0,0,0,0,0,0,0,0,0,0,0,0,0],"id":12,"left_children":[1,3,5,7,9,11,13,15,17,19,21,23,-1,25,27,-1,-1,-1,-1,-1,-1,-1,-1,-1,-1,-1,-1,-1,-1],"loss_changes":[2.7021942E0,6.852789E0,5.461408E0,5.3590665E0,7.5059805E0,1.0613656E0,3.7089655E0,7.151696E0,7.756389E0,6.2458606E0,7.406679E0,9.135151E-2,0E0,4.8830185E0,1.610538E0,0E0,0E0,0E0,0E0,0E0,0E0,0E0,0E0,0E0,0E0,0E0,0E0,0E0,0E0],"parents":[2147483647,0,0,1,1,2,2,3,3,4,4,5,5,6,6,7,7,8,8,9,9,10,10,11,11,13,13,14,14],"right_children":[2,4,6,8,10,12,14,16,18,20,22,24,-1,26,28,-1,-1,-1,-1,-1,-1,-1,-1,-1,-1,-1,-1,-1,-1],"split_conditions":[1.0544128E0,2.55E1,1.062594E0,1.65E1,1.95E1,4.475E2,6.277635E4,3.155E2,1.445E3,8.8E1,5.5E0,4.95E1,1.754083E-2,4.5E0,1.2282436E0,9.60995E-3,-1.46823E-1,1.4968665E-1,4.025227E-3,1.7626616E-1,-3.7241172E-2,-2.3565023E-1,-3.63159E-2,2.8160977E-1,8.013385E-2,4.4141524E-2,-3.6493365E-2,4.476338E-2,-1.8057238E-1],"split_indices":[27,28,27,15,15,8,0,20,5,8,14,30,0,19,29,0,0,0,0,0,0,0,0,0,0,0,0,0,0],"split_type":[0,0,0,0,0,0,0,0,0,0,0,0,0,0,0,0,0,0,0,0,0,0,0,0,0,0,0,0,0],"sum_hessian":[3.5992255E2,2.0530641E2,1.5461613E2,1.3029846E2,7.500795E1,4.996134E0,1.4962E2,6.768705E1,6.261141E1,4.53171E1,2.9690845E1,3.8682804E0,1.1278536E0,1.4401164E2,5.6083593E0,5.3788246E1,1.3898804E1,2.1855099E1,4.075631E1,5.3287554E0,3.9988346E1,1.4347255E1,1.5343591E1,2.7038598E0,1.1644205E0,1.0256634E2,4.14453E1,1.2120306E0,4.3963284E0],"tree_param":{"num_deleted":"0","num_feature":"32","num_nodes":"29","size_leaf_vector":"0"}},{"base_weights":[8.35308E-3,-7.148543E-3,5.173822E-1,4.271333E-3,-1.0319406E0,-1.0966784E0,8.899299E-1,-4.4480707E-2,1.8439697E-1,-1.9138743E-1,-1.3233746E0,1.3352907E0,3.3891836E-1,1.8076122E-2,-2.79621E-1,-7.981758E-1,2.4649882E-1,1.1502341E0,-5.234087E-1],"categories":[],"categories_nodes":[],"categories_segments":[],"categories_sizes":[],"default_left":[1,1,0,1,0,0,1,1,0,0,0,0,1,0,0,0,0,0,0],"id":13,"left_children":[1,3,5,7,9,-1,11,13,15,-1,-1,-1,17,-1,-1,-1,-1,-1,-1],"loss_changes":[2.842908E0,4.102404E0,7.378352E0,3.0580423E0,6.9308233E-1,0E0,1.8057709E0,4.0374293E0,4.7226686E0,0E0,0E0,0E0,4.4174743E0,0E0,0E0,0E0,0E0,0E0,0E0],"parents":[2147483647,0,0,1,1,2,2,3,3,4,4,6,6,7,7,8,8,12,12],"right_children":[2,4,6,8,10,-1,12,14,16,-1,-1,-1,18,-1,-1,-1,-1,-1,-1],"split_conditions":[1.75555E4,1.10705E5,2.5E0,2.45E1,9.6595037E-1,-2.1933568E-1,3.5E0,1.95E1,7.7E1,-3.827749E-2,-2.6467493E-1,2.6705813E-1,1.3184084E4,3.6152245E-3,-5.5924203E-2,-1.5963517E-1,4.9299765E-2,2.3004682E-1,-1.04681745E-1],"split_indices":[8,6,14,15,27,0,19,15,13,0,0,0,0,0,0,0,0,0,0],"split_type":[0,0,0,0,0,0,0,0,0,0,0,0,0,0,0,0,0,0,0],"sum_hessian":[3.588137E2,3.4916638E2,9.647316E0,3.4630313E2,2.8632326E0,1.4446504E0,8.202665E0,2.7313156E2,7.317157E1,1.1636748E0,1.6995579E0,3.7490845E0,4.4535804E0,2.1646599E2,5.666558E1,3.64517E0,6.9526405E1,2.1226368E0,2.3309438E0],"tree_param":{"num_deleted":"0","num_feature":"32","num_nodes":"19","size_leaf_vector":"0"}},{"base_weights":[5.9917434E-3,3.5083362E-1,-1.3985754E-2,-5.218479E-1,5.364047E-1,-9.55568E-2,1.0297034E-1,4.9447927E-1,-1.1098083E0,-3.024589E-1,7.0999014E-1,-5.266703E-2,-7.74486E-1,2.5189063E-1,-1.908077E-1,5.750515E-1,-1.0956163E0,8.814956E-1,-4.425047E-2,1.2666938E-2,-4.3660313E-1,-1.033575E0,4.8900896E-1,6.165873E-2,6.3014513E-1,-5.875834E-1,1.7574665E-1],"categories":[],"categories_nodes":[],"categories_segments":[],"categories_sizes":[],"default_left":[0,1,1,1,1,1,1,0,0,1,1,1,0,1,0,0,0,0,0,0,0,0,0,0,0,0,0],"id":14,"left_children":[1,3,5,7,9,11,13,-1,-1,15,17,19,21,23,25,-1,-1,-1,-1,-1,-1,-1,-1,-1,-1,-1,-1],"loss_changes":[2.4783926E0,3.4701643E0,3.2568095E0,2.9159074E0,2.652079E0,5.8128037E0,6.1871095E0,0E0,0E0,3.1155045E0,1.8716278E0,4.7752843E0,4.391682E0,6.6926517E0,7.051284E0,0E0,0E0,0E0,0E0,0E0,0E0,0E0,0E0,0E0,0E0,0E0,0E0],"parents":[2147483647,0,0,1,1,2,2,3,3,4,4,5,5,6,6,9,9,10,10,11,11,12,12,13,13,14,14],"right_children":[2,4,6,8,10,12,14,-1,-1,16,18,20,22,24,26,-1,-1,-1,-1,-1,-1,-1,-1,-1,-1,-1,-1],"split_conditions":[7.206508E-1,3.2437603E8,4.85E1,6.764714E4,7.5E1,1.1893575E0,7.55E2,9.8895855E-2,-2.2196166E-1,1.2638945E5,3.393446E4,5.5E0,2.3805E3,4.065E2,1.54E3,1.150103E-1,-2.1912327E-1,1.7629912E-1,-8.850094E-3,2.5333876E-3,-8.7320626E-2,-2.0671502E-1,9.78018E-2,1.2331746E-2,1.2602903E-1,-1.1751669E-1,3.5149332E-2],"split_indices":[29,4,30,3,5,27,13,0,0,3,1,19,13,13,8,0,0,0,0,0,0,0,0,0,0,0,0],"split_type":[0,0,0,0,0,0,0,0,0,0,0,0,0,0,0,0,0,0,0,0,0,0,0,0,0,0,0],"sum_hessian":[3.580446E2,1.8699608E1,3.39345E2,2.9613252E0,1.5738282E1,2.0002234E2,1.3932265E2,1.143575E0,1.8177501E0,2.5710557E0,1.3167227E1,1.8915076E2,1.0871585E1,9.255021E1,4.677244E1,1.3511709E0,1.2198848E0,1.059038E1,2.5768468E0,1.6247037E2,2.6680391E1,9.172639E0,1.6989465E0,6.2354076E1,3.0196129E1,2.2170765E1,2.4601675E1],"tree_param":{"num_deleted":"0","num_feature":"32","num_nodes":"27","size_leaf_vector":"0"}},{"base_weights":[4.391014E-3,1.0106488E0,-2.3780896E-3,-8.0072296E-1,8.612455E-3,-1.178569E0,-6.461762E-2,7.055353E-1,-1.9192019E-3,1.1423193E0,-4.1839242E-1,8.0571216E-1,-1.0738791E-2],"categories":[],"categories_nodes":[],"categories_segments":[],"categories_sizes":[],"default_left":[0,0,0,0,0,0,0,0,0,0,0,0,0],"id":15,"left_children":[1,-1,3,5,7,-1,-1,9,11,-1,-1,-1,-1],"loss_changes":[2.437731E0,0E0,3.131776E0,1.2719483E0,2.5871148E0,0E0,0E0,3.053872E0,2.4877913E0,0E0,0E0,0E0,0E0],"parents":[2147483647,0,0,2,2,3,3,4,4,7,7,8,8],"right_children":[2,-1,4,6,8,-1,-1,10,12,-1,-1,-1,-1],"split_conditions":[5.185E2,2.0212977E-1,6.7E1,1.0090462E0,2.85E1,-2.357138E-1,-1.2923524E-2,1.1686702E0,3.5E0,2.2846387E-1,-8.3678484E-2,1.6114244E-1,-2.1477581E-3],"split_indices":[7,0,5,23,13,0,0,27,26,0,0,0,0],"split_type":[0,0,0,0,0,0,0,0,0,0,0,0,0],"sum_hessian":[3.5653372E2,1.3914081E0,3.551423E2,3.8469524E0,3.5129535E2,2.144886E0,1.7020665E0,4.247225E0,3.4704813E2,3.046804E0,1.2004212E0,2.7728908E0,3.4427524E2],"tree_param":{"num_deleted":"0","num_feature":"32","num_nodes":"13","size_leaf_vector":"0"}},{"base_weights":[4.274264E-3,2.1552343E-2,-3.5698912E-1,-2.3978536E-3,6.799115E-1,-9.742822E-1,-9.373202E-2,9.665214E-3,-8.806441E-1,1.03263654E-1,1.1067694E0,-6.420797E-2,-1.3230337E0,-8.284929E-1,2.2364283E-1,2.8500848E-2,-4.2763418E-1,-1.1429143E0,-1.4152546E-2,-8.1122243E-1,4.8375472E-1,1.2597182E0,3.8391966E-1,-1.5322305E-1,-1.1170621E0,-3.121467E-1,7.560987E-1],"categories":[],"categories_nodes":[],"categories_segments":[],"categories_sizes":[],"default_left":[1,1,0,1,0,1,1,1,1,0,0,0,0,0,0,0,0,0,0,0,0,0,0,0,0,0,0],"id":16,"left_children":[1,3,5,7,9,11,13,15,17,19,21,-1,-1,23,25,-1,-1,-1,-1,-1,-1,-1,-1,-1,-1,-1,-1],"loss_changes":[2.2373798E0,5.39185E0,2.5675156E0,3.5136096E0,2.8402076E0,1.4337921E0,3.1180098E0,2.7085292E0,1.0050154E0,2.55273E0,2.6755238E-1,0E0,0E0,6.094918E-1,2.9662166E0,0E0,0E0,0E0,0E0,0E0,0E0,0E0,0E0,0E0,0E0,0E0,0E0],"parents":[2147483647,0,0,1,1,2,2,3,3,4,4,5,5,6,6,7,7,8,8,9,9,10,10,13,13,14,14],"right_children":[2,4,6,8,10,12,14,16,18,20,22,-1,-1,24,26,-1,-1,-1,-1,-1,-1,-1,-1,-1,-1,-1,-1],"split_conditions":[2.2635E3,2.2858184E9,3.25E1,6.216033E4,1.10545E4,3.5E0,1.425E2,1.3471014E0,3.145E2,1.589E3,1.0091195E0,-1.2841594E-2,-2.6460674E-1,9.958534E-1,1.9315E3,5.7001696E-3,-8.552684E-2,-2.2858286E-1,-2.8305093E-3,-1.6224448E-1,9.6750945E-2,2.5194365E-1,7.678393E-2,-3.064461E-2,-2.2341242E-1,-6.242934E-2,1.5121974E-1],"split_indices":[13,9,14,2,5,19,20,27,20,13,21,0,0,21,8,0,0,0,0,0,0,0,0,0,0,0,0],"split_type":[0,0,0,0,0,0,0,0,0,0,0,0,0,0,0,0,0,0,0,0,0,0,0,0,0,0,0],"sum_hessian":[3.5621054E2,3.4084915E2,1.5361389E1,3.2984616E2,1.100299E1,3.785099E0,1.157629E1,3.263526E2,3.4935899E0,5.2085752E0,5.7944145E0,1.3766944E0,2.4084046E0,3.0061762E0,8.570114E0,3.137724E2,1.2580176E1,2.4369564E0,1.0566335E0,1.1977702E0,4.010805E0,4.169479E0,1.6249359E0,1.3584032E0,1.647773E0,4.477919E0,4.092195E0],"tree_param":{"num_deleted":"0","num_feature":"32","num_nodes":"27","size_leaf_vector":"0"}},{"base_weights":[2.090435E-3,-3.460801E-2,1.7747104E-1,-1.2439908E-2,-7.7597725E-1,4.9748883E-1,-5.5973154E-2,-8.5156135E-2,1.8587857E-1,-1.0918312E0,6.3067055E-1,-9.899223E-1,6.0838413E-1,-7.1036345E-1,2.5955024E-1,-1.6701409E-3,-3.9931935E-1,3.2617915E-1,-1.4187215E-1,-1.5278323E-1,-1.2952968E0,-3.7075367E-3,8.7680125E-1,3.4097072E-1,-9.297323E-1,5.5858856E-1,-4.7494715E-1],"categories":[],"categories_nodes":[],"categories_segments":[],"categories_sizes":[],"default_left":[0,0,1,1,1,1,1,0,1,1,0,0,1,1,1,0,0,0,0,0,0,0,0,0,0,0,0],"id":17,"left_children":[1,3,5,7,9,11,13,15,17,19,-1,-1,21,23,25,-1,-1,-1,-1,-1,-1,-1,-1,-1,-1,-1,-1],"loss_changes":[2.2989526E0,4.8456655E0,4.645211E0,4.167179E0,4.4922204E0,4.9190135E0,7.748871E0,5.5419364E0,3.6121626E0,1.2078247E0,0E0,0E0,4.1064043E0,3.127419E0,5.8553243E0,0E0,0E0,0E0,0E0,0E0,0E0,0E0,0E0,0E0,0E0,0E0,0E0],"parents":[2147483647,0,0,1,1,2,2,3,3,4,4,5,5,6,6,7,7,8,8,9,9,12,12,13,13,14,14],"right_children":[2,4,6,8,10,12,14,16,18,20,-1,-1,22,24,26,-1,-1,-1,-1,-1,-1,-1,-1,-1,-1,-1,-1],"split_conditions":[1.0856676E0,1.0768697E0,1.1186235E0,1.08074E0,5.5E0,1.6E1,9.359046E8,1.0536113E0,5.500075E4,7.357295E3,1.2613411E-1,-1.9798446E-1,4.50614E4,5.30087E3,4.09476E4,-3.3402818E-4,-7.986387E-2,6.523583E-2,-2.8374432E-2,-3.0556647E-2,-2.5905937E-1,-7.4150733E-4,1.7536025E-1,6.819414E-2,-1.8594646E-1,1.11717716E-1,-9.4989434E-2],"split_indices":[25,25,25,27,19,20,4,29,3,2,0,0,3,0,0,0,0,0,0,0,0,0,0,0,0,0,0],"split_type":[0,0,0,0,0,0,0,0,0,0,0,0,0,0,0,0,0,0,0,0,0,0,0,0,0,0,0],"sum_hessian":[3.5523694E2,2.9443002E2,6.0806904E1,2.8686896E2,7.561052E0,2.5170607E1,3.56363E1,2.1032207E2,7.65469E1,6.357354E0,1.2036976E0,1.1964383E0,2.3974169E1,1.1185784E1,2.4450514E1,1.6695944E2,4.3362625E1,5.3604965E1,2.2941935E1,1.4439669E0,4.9133873E0,7.608996E0,1.6365173E1,1.8353704E0,9.350413E0,1.7546318E1,6.904195E0],"tree_param":{"num_deleted":"0","num_feature":"32","num_nodes":"27","size_leaf_vector":"0"}},{"base_weights":[8.762725E-4,4.51961E-1,-1.2326207E-2,9.4917786E-1,-2.0566626E-1,-8.61019E-1,8.680321E-3,1.2528795E-1,1.1344209E0,-7.174088E-1,7.445524E-1,-1.2902002E0,-1.3540048E-4,7.0548445E-1,-2.1113472E-3,-1.4650524E-1,-1.0800422E0,-6.691967E-1,8.0038285E-1,1.0182407E0,9.675525E-2,1.685433E-2,-3.6399543E-1],"categories":[],"categories_nodes":[],"categories_segments":[],"categories_sizes":[],"default_left":[1,0,1,0,1,1,1,0,0,1,0,0,0,1,1,0,0,0,0,0,0,0,0],"id":18,"left_children":[1,3,5,7,9,11,13,-1,-1,15,-1,-1,17,19,21,-1,-1,-1,-1,-1,-1,-1,-1],"loss_changes":[2.1210802E0,3.5067976E0,6.1776953E0,7.6524305E-1,3.0541666E0,3.0921454E0,2.5486002E0,0E0,0E0,6.4454854E-1,0E0,0E0,2.562568E0,8.855655E-1,2.3023264E0,0E0,0E0,0E0,0E0,0E0,0E0,0E0,0E0],"parents":[2147483647,0,0,1,1,2,2,3,3,4,4,5,5,6,6,9,9,12,12,13,13,14,14],"right_children":[2,4,6,8,10,12,14,-1,-1,16,-1,-1,18,20,22,-1,-1,-1,-1,-1,-1,-1,-1],"split_conditions":[1.569725E4,9.981818E-1,1.7536914E4,9.317298E-1,2.885E2,1.1507846E4,5.5E0,2.505759E-2,2.2688417E-1,1.4811258E8,1.4891048E-1,-2.5804004E-1,1.0216829E0,4.35E1,1.0361863E0,-2.9301047E-2,-2.1600845E-1,-1.3383935E-1,1.6007657E-1,2.0364814E-1,1.935105E-2,3.3708662E-3,-7.279909E-2],"split_indices":[3,23,3,29,20,2,20,0,0,4,0,0,25,30,21,0,0,0,0,0,0,0,0],"split_type":[0,0,0,0,0,0,0,0,0,0,0,0,0,0,0,0,0,0,0,0,0,0,0],"sum_hessian":[3.5422318E2,9.127682E0,3.4509552E2,4.9453096E0,4.182372E0,7.3694963E0,3.37726E2,1.2155136E0,3.729796E0,2.8776262E0,1.3047458E0,4.5850115E0,2.784485E0,4.1689544E0,3.3355707E2,1.6632038E0,1.2144225E0,1.6061414E0,1.1783438E0,2.3095887E0,1.8593655E0,3.1785242E2,1.5704635E1],"tree_param":{"num_deleted":"0","num_feature":"32","num_nodes":"23","size_leaf_vector":"0"}},{"base_weights":[9.241326E-4,-1.8049385E-1,3.1892728E-2,3.8538972E-1,-4.8463315E-1,4.628194E-2,-7.829641E-1,-2.0552313E-2,8.6115265E-1,-1.02273E0,-2.5720912E-1,1.4144837E-2,3.83812E-1,-1.9149194E-2,-9.965527E-1,8.7661445E-1,-5.006126E-1,1.3019449E0,-6.3634515E-2,3.329344E-1,-1.3001329E0,-8.126521E-1,3.4237403E-1,7.6291546E-2,-1.9783002E-1,8.4918296E-1,4.898212E-2],"categories":[],"categories_nodes":[],"categories_segments":[],"categories_sizes":[],"default_left":[1,1,1,1,1,0,1,1,1,0,1,0,1,0,0,0,0,0,0,0,0,0,0,0,0,0,0],"id":19,"left_children":[1,3,5,7,9,11,13,15,17,19,21,23,25,-1,-1,-1,-1,-1,-1,-1,-1,-1,-1,-1,-1,-1,-1],"loss_changes":[1.9962218E0,9.1035385E0,3.5945349E0,3.6231556E0,3.9149857E0,3.2395651E0,8.4912133E-1,5.1980224E0,3.5960107E0,4.1208353E0,8.715396E0,3.6270816E0,4.00486E0,0E0,0E0,0E0,0E0,0E0,0E0,0E0,0E0,0E0,0E0,0E0,0E0,0E0,0E0],"parents":[2147483647,0,0,1,1,2,2,3,3,4,4,5,5,6,6,7,7,8,8,9,9,10,10,11,11,12,12],"right_children":[2,4,6,8,10,12,14,16,18,20,22,24,26,-1,-1,-1,-1,-1,-1,-1,-1,-1,-1,-1,-1,-1,-1],"split_conditions":[5E-1,1.335E2,1.2247251E0,4.75E1,3.4653942E8,1.0747255E0,7.5E0,2.45E1,1.0084508E9,1.3445994E8,2.385E2,1.027765E0,1.0864155E0,-3.8298387E-3,-1.9931054E-1,1.7532289E-1,-1.0012253E-1,2.6038897E-1,-1.2726903E-2,6.658688E-2,-2.6002657E-1,-1.6253042E-1,6.847481E-2,1.5258309E-2,-3.9566007E-2,1.698366E-1,9.796425E-3],"split_indices":[19,20,25,30,4,23,15,28,9,9,20,23,23,0,0,0,0,0,0,0,0,0,0,0,0,0,0],"split_type":[0,0,0,0,0,0,0,0,0,0,0,0,0,0,0,0,0,0,0,0,0,0,0,0,0,0,0],"sum_hessian":[3.53285E2,5.0809307E1,3.0247568E2,1.7668337E1,3.3140972E1,2.981539E2,4.3217716E0,1.0050018E1,7.618319E0,8.806745E0,2.4334227E1,2.7318515E2,2.4968754E1,1.18254E0,3.1392317E0,3.2152002E0,6.834818E0,4.883031E0,2.7352881E0,1.4619634E0,7.3447814E0,1.2447617E1,1.1886609E1,2.1174573E2,6.1439438E1,9.804954E0,1.51638E1],"tree_param":{"num_deleted":"0","num_feature":"32","num_nodes":"27","size_leaf_vector":"0"}}]},"name":"gbtree"},"learner_model_param":{"base_score":"5E-1","boost_from_average":"1","num_class":"0","num_feature":"32","num_target":"1"},"objective":{"name":"binary:logistic","reg_loss_param":{"scale_pos_weight":"1"}}},"version":[1,7,5]}