{"learner":{"attributes":{"scikit_learn":"{\"_estimator_type\": \"classifier\"}"},"feature_names":["high","low","open","volumefrom","volumeto","close","replyCount","retweetCount","likeCount","quoteCount","followersCount","listedCount","isReplied","isMentioned","charCount","mentionsCount","topics","probs","day","year","month","quarter","day_of_week","day_of_year","is_month_end","is_month_start","is_quarter_end","is_quarter_start","is_year_end","is_year_start","lag1","lag7","lag14","lag30","lag60","lag90","lag365"],"feature_types":["float","float","float","float","float","float","float","float","float","float","float","float","float","float","float","float","float","float","int","int","int","int","int","int","i","i","i","i","i","i","float","float","float","float","float","float","float"],"gradient_booster":{"model":{"gbtree_model_param":{"num_parallel_tree":"1","num_trees":"20"},"iteration_indptr":[0,1,2,3,4,5,6,7,8,9,10,11,12,13,14,15,16,17,18,19,20],"tree_info":[0,0,0,0,0,0,0,0,0,0,0,0,0,0,0,0,0,0,0,0],"trees":[{"base_weights":[-0E0,1.74591E-1,-1.6464897E-1,3.689653E-1,-2.2311924E-2,1.439836E-1,-4.5058783E-2,1.6575933E-1,-0E0,-2.1223547E-2,-3.2089728E-1,-1.4199398E-1,9.503394E-3,1.1937666E-1,-3.166974E-2],"categories":[],"categories_nodes":[],"categories_segments":[],"categories_sizes":[],"default_left":[1,1,1,0,0,0,0,0,0,0,0,0,0,0,0],"id":0,"left_children":[1,3,9,7,5,-1,-1,-1,-1,13,11,-1,-1,-1,-1],"loss_changes":[1.4999456E1,1.013076E1,5.600281E0,7.5510464E0,7.866236E0,0E0,0E0,0E0,0E0,4.8867655E0,5.9160433E0,0E0,0E0,0E0,0E0],"parents":[2147483647,0,0,1,1,4,4,3,3,2,2,10,10,9,9],"right_children":[2,4,10,8,6,-1,-1,-1,-1,14,12,-1,-1,-1,-1],"split_conditions":[1E0,1E0,1E0,2.022E3,6.50987E3,1.439836E-1,-4.5058783E-2,1.6575933E-1,-0E0,1.3698E4,5.69176E5,-1.4199398E-1,9.503394E-3,1.1937666E-1,-3.166974E-2],"split_indices":[30,32,36,19,5,0,0,0,0,8,8,0,0,0,0],"split_type":[0,0,0,0,0,0,0,0,0,0,0,0,0,0,0],"sum_hessian":[4.997854E2,2.4227478E2,2.5751062E2,1.1963878E2,1.22635994E2,1.6734444E1,1.0590155E2,8.342245E1,3.621633E1,1.4411603E2,1.13394585E2,8.392198E1,2.94726E1,1.47363E1,1.2937973E2],"tree_param":{"num_deleted":"0","num_feature":"37","num_nodes":"15","size_leaf_vector":"1"}},{"base_weights":[3.1574415E-3,1.3017112E-1,-1.1259119E-1,4.8066163E-1,5.3803716E-2,-6.004823E-2,5.5377856E-2,8.233401E-2,-1.8240044E-1,-1.3684244E-1,-2.6774896E-2,-3.390315E-2,1.7814638E-1,8.266704E-2,-2.3396138E-2],"categories":[],"categories_nodes":[],"categories_segments":[],"categories_sizes":[],"default_left":[1,0,0,0,0,0,0,1,0,0,0,0,0,0,0],"id":1,"left_children":[1,3,7,11,5,-1,-1,13,9,-1,-1,-1,-1,-1,-1],"loss_changes":[7.6714926E0,5.932019E0,3.9179254E0,2.9461374E0,6.7298756E0,0E0,0E0,2.4335349E0,4.0546813E0,0E0,0E0,0E0,0E0,0E0,0E0],"parents":[2147483647,0,0,1,1,4,4,2,2,8,8,3,3,7,7],"right_children":[2,4,8,12,6,-1,-1,14,10,-1,-1,-1,-1,-1,-1],"split_conditions":[1E0,6.47074E3,1.893E3,7.9597464E7,2.02E3,-6.004823E-2,5.5377856E-2,1E0,6.723008E8,-1.3684244E-1,-2.6774896E-2,-3.390315E-2,1.7814638E-1,8.266704E-2,-2.3396138E-2],"split_indices":[30,5,6,4,19,0,0,33,10,0,0,0,0,0,0],"split_type":[0,0,0,0,0,0,0,0,0,0,0,0,0,0,0],"sum_hessian":[4.986496E2,2.4122098E2,2.5742862E2,3.039462E1,2.1082635E2,6.484246E1,1.459839E2,6.3584934E1,1.9384369E2,4.221416E1,1.5162952E2,1.4826221E0,2.8911999E1,2.9423431E1,3.4161503E1],"tree_param":{"num_deleted":"0","num_feature":"37","num_nodes":"15","size_leaf_vector":"1"}},{"base_weights":[1.1619596E-3,5.9284896E-2,-1.5862148E-1,-2.4010755E-1,2.2135954E-1,1.6936447E-1,-3.6029145E-2,1.1185691E-1,-1.9897516E-4,2.1854863E-2,-6.879695E-2,2.5294878E-2,-1.0547236E-1,-4.4380147E-2,1.1842021E-1],"categories":[],"categories_nodes":[],"categories_segments":[],"categories_sizes":[],"default_left":[0,1,0,0,0,1,0,0,0,0,0,0,0,0,0],"id":2,"left_children":[1,5,3,11,13,7,9,-1,-1,-1,-1,-1,-1,-1,-1],"loss_changes":[4.7247005E0,4.2432156E0,4.7519474E0,3.9008684E0,2.2530487E0,6.0363216E0,4.242184E0,0E0,0E0,0E0,0E0,0E0,0E0,0E0,0E0],"parents":[2147483647,0,0,2,2,1,1,5,5,6,6,3,3,4,4],"right_children":[2,6,4,12,14,8,10,-1,-1,-1,-1,-1,-1,-1,-1],"split_conditions":[2.022E3,1E0,1.769477E9,1.937891E4,6.37E2,1E0,2E1,1.1185691E-1,-1.9897516E-4,2.1854863E-2,-6.879695E-2,2.5294878E-2,-1.0547236E-1,-4.4380147E-2,1.1842021E-1],"split_indices":[19,30,4,2,9,32,18,0,0,0,0,0,0,0,0],"split_type":[0,0,0,0,0,0,0,0,0,0,0,0,0,0,0],"sum_hessian":[4.972968E2,3.7431342E2,1.229834E2,1.06768105E2,1.6215298E1,1.7460509E2,1.9970833E2,8.197405E1,9.2631035E1,1.2692919E2,7.277913E1,2.1216274E1,8.555183E1,2.990551E0,1.3224747E1],"tree_param":{"num_deleted":"0","num_feature":"37","num_nodes":"15","size_leaf_vector":"1"}},{"base_weights":[1.5809243E-3,-1.2551771E-1,5.4460797E-2,3.097006E-1,-2.0349893E-1,-2.4453396E-2,-1.66652E-1,9.591266E-2,-1.1675464E-1,-1.0805392E-1,2.6280135E-2,-1.0949363E-2,5.1545244E-2,1.4156291E-1,-8.473594E-3],"categories":[],"categories_nodes":[],"categories_segments":[],"categories_sizes":[],"default_left":[0,0,0,0,1,0,0,0,0,0,0,0,0,0,0],"id":3,"left_children":[1,3,7,13,5,-1,-1,11,9,-1,-1,-1,-1,-1,-1],"loss_changes":[3.408912E0,5.562998E0,2.735227E0,1.6461437E0,4.324721E0,0E0,0E0,2.8112886E0,3.7488532E0,0E0,0E0,0E0,0E0,0E0,0E0],"parents":[2147483647,0,0,1,1,4,4,2,2,8,8,7,7,3,3],"right_children":[2,4,8,14,6,-1,-1,12,10,-1,-1,-1,-1,-1,-1],"split_conditions":[3.128114E4,1.465842E4,5E0,3.974975E4,2E1,-2.4453396E-2,-1.66652E-1,1.1E1,1.37E2,-1.0805392E-1,2.6280135E-2,-1.0949363E-2,5.1545244E-2,1.4156291E-1,-8.473594E-3],"split_indices":[3,3,22,5,15,0,0,18,23,0,0,0,0,0,0],"split_type":[0,0,0,0,0,0,0,0,0,0,0,0,0,0,0],"sum_hessian":[4.9559058E2,1.356148E2,3.5997577E2,1.3691545E1,1.2192326E2,9.905159E1,2.2871675E1,2.9840857E2,6.156722E1,2.7913267E1,3.3653954E1,9.6195724E1,2.0221283E2,9.458164E0,4.2333803E0],"tree_param":{"num_deleted":"0","num_feature":"37","num_nodes":"15","size_leaf_vector":"1"}},{"base_weights":[-0E0,1.797535E-1,-3.1040072E-2,-2.031147E-1,3.4047925E-1,-4.084445E-1,-2.4875735E-3,1.4807634E-1,-3.80623E-2,-1.8398173E-2,4.8939068E-2,3.5357233E-2,-1.3309301E-1,5.736679E-3,-1.5372401E-1],"categories":[],"categories_nodes":[],"categories_segments":[],"categories_sizes":[],"default_left":[0,1,0,0,0,0,0,0,0,0,0,0,0,0,0],"id":4,"left_children":[1,3,5,11,7,13,9,-1,-1,-1,-1,-1,-1,-1,-1],"loss_changes":[2.8118372E0,5.439779E0,4.354834E0,2.6042643E0,4.2032313E0,1.4359641E0,3.6402988E0,0E0,0E0,0E0,0E0,0E0,0E0,0E0,0E0],"parents":[2147483647,0,0,1,1,2,2,4,4,6,6,3,3,5,5],"right_children":[2,4,6,12,8,14,10,-1,-1,-1,-1,-1,-1,-1,-1],"split_conditions":[6.47074E3,2E0,6.76718E3,1E0,3.16E2,8.1E1,2.2858245E9,1.4807634E-1,-3.80623E-2,-1.8398173E-2,4.8939068E-2,3.5357233E-2,-1.3309301E-1,5.736679E-3,-1.5372401E-1],"split_indices":[5,15,2,30,23,9,10,0,0,0,0,0,0,0,0],"split_type":[0,0,0,0,0,0,0,0,0,0,0,0,0,0,0],"sum_hessian":[4.951057E2,6.2804554E1,4.3230118E2,1.5872196E1,4.6932358E1,1.7648342E1,4.1465283E2,3.872449E1,8.20787E0,3.161327E2,9.852015E1,6.654592E0,9.217604E0,1.7335438E0,1.5914798E1],"tree_param":{"num_deleted":"0","num_feature":"37","num_nodes":"15","size_leaf_vector":"1"}},{"base_weights":[-8.7147625E-4,1.4016041E-1,-4.10202E-2,-2.2511567E-1,3.448888E-2,5.033166E-2,-2.5751986E-2,-1.1179323E-1,-3.138433E-3,2.0232274E-1,-6.0718525E-2,-1.9118462E-2,1.0518888E-1],"categories":[],"categories_nodes":[],"categories_segments":[],"categories_sizes":[],"default_left":[0,0,0,0,0,0,0,0,0,0,0,0,0],"id":5,"left_children":[1,9,3,7,5,-1,-1,-1,-1,11,-1,-1,-1],"loss_changes":[2.8250551E0,2.6688914E0,5.9382997E0,2.914485E0,4.3741636E0,0E0,0E0,0E0,0E0,3.7820482E0,0E0,0E0,0E0],"parents":[2147483647,0,0,2,2,4,4,3,3,1,1,9,9],"right_children":[2,10,4,8,6,-1,-1,-1,-1,12,-1,-1,-1],"split_conditions":[1.409E3,7.64E2,9.273E3,4.68946E4,3.0866E4,5.033166E-2,-2.5751986E-2,-1.1179323E-1,-3.138433E-3,5.3E1,-6.0718525E-2,-1.9118462E-2,1.0518888E-1],"split_indices":[6,14,7,3,6,0,0,0,0,9,0,0,0],"split_type":[0,0,0,0,0,0,0,0,0,0,0,0,0],"sum_hessian":[4.9426764E2,9.79359E1,3.9633176E2,1.1279067E2,2.8354108E2,1.3934735E2,1.4419373E2,6.423348E1,4.855719E1,8.853827E1,9.397623E0,2.8120483E1,6.041779E1],"tree_param":{"num_deleted":"0","num_feature":"37","num_nodes":"13","size_leaf_vector":"1"}},{"base_weights":[-3.2193237E-3,-1.7916769E-2,1.0893495E-1,-1.59587E-1,1.6825512E-2,2.4796661E-2,-3.348179E-2,2.2394037E-2,-8.342065E-2],"categories":[],"categories_nodes":[],"categories_segments":[],"categories_sizes":[],"default_left":[0,0,0,0,0,0,0,0,0],"id":6,"left_children":[1,3,-1,7,5,-1,-1,-1,-1],"loss_changes":[2.2919798E0,2.6181288E0,0E0,2.8186967E0,3.0338826E0,0E0,0E0,0E0,0E0],"parents":[2147483647,0,0,1,1,4,4,3,3],"right_children":[2,4,-1,8,6,-1,-1,-1,-1],"split_conditions":[2.00001E0,2.019E3,1.0893495E-1,6.47074E3,2.022E3,2.4796661E-2,-3.348179E-2,2.2394037E-2,-8.342065E-2],"split_indices":[33,19,0,5,19,0,0,0,0],"split_type":[0,0,0,0,0,0,0,0,0],"sum_hessian":[4.933698E2,4.8592346E2,7.4463367E0,9.358065E1,3.923428E2,2.6980023E2,1.2254257E2,2.6623367E1,6.695728E1],"tree_param":{"num_deleted":"0","num_feature":"37","num_nodes":"9","size_leaf_vector":"1"}},{"base_weights":[-4.4122007E-5,6.755954E-2,-6.663496E-2,2.2297859E-1,-2.217449E-2,-5.8764517E-2,6.1948344E-2,9.6903466E-2,-5.874414E-2,3.081623E-2,-1.9045216E-1,5.73781E-2,-4.1646365E-2,-9.179586E-2,1.9617641E-2],"categories":[],"categories_nodes":[],"categories_segments":[],"categories_sizes":[],"default_left":[1,0,1,1,0,0,0,0,0,0,0,0,0,0,0],"id":7,"left_children":[1,3,9,7,5,-1,-1,-1,-1,11,13,-1,-1,-1,-1],"loss_changes":[2.3170953E0,3.7147903E0,3.444007E0,3.8429213E0,6.0663557E0,0E0,0E0,0E0,0E0,3.993106E0,3.4184365E0,0E0,0E0,0E0,0E0],"parents":[2147483647,0,0,1,1,4,4,3,3,2,2,9,9,10,10],"right_children":[2,4,10,8,6,-1,-1,-1,-1,12,14,-1,-1,-1,-1],"split_conditions":[1E0,1.25E2,1E0,1.397E3,4E0,-5.8764517E-2,6.1948344E-2,9.6903466E-2,-5.874414E-2,1.3445967E9,5.69176E5,5.73781E-2,-4.1646365E-2,-9.179586E-2,1.9617641E-2],"split_indices":[30,23,36,14,22,0,0,0,0,10,8,0,0,0,0],"split_type":[0,0,0,0,0,0,0,0,0,0,0,0,0,0,0],"sum_hessian":[4.9291122E2,2.3706422E2,2.55847E2,8.487366E1,1.5219057E2,9.0636154E1,6.1554413E1,7.534305E1,9.530608E0,1.4327068E2,1.1257633E2,7.710162E1,6.616905E1,8.3166245E1,2.9410088E1],"tree_param":{"num_deleted":"0","num_feature":"37","num_nodes":"15","size_leaf_vector":"1"}},{"base_weights":[-0E0,-1.0800561E-1,4.6606418E-2,2.8232238E-1,-2.541763E-2,2.0962702E-3,-4.2624488E-1,2.4913063E-2,-1.8015356E-1,-4.6291597E-2,2.7542764E-2,2.4629235E-2,-9.412943E-2,1.0670424E-2,1.3307346E-1],"categories":[],"categories_nodes":[],"categories_segments":[],"categories_sizes":[],"default_left":[0,0,0,0,0,0,0,0,0,0,0,0,0,0,0],"id":8,"left_children":[1,5,3,13,9,11,7,-1,-1,-1,-1,-1,-1,-1,-1],"loss_changes":[2.6356907E0,6.0453243E0,6.3348246E0,2.2859864E0,3.884689E0,2.861926E0,3.9692678E0,0E0,0E0,0E0,0E0,0E0,0E0,0E0,0E0],"parents":[2147483647,0,0,2,2,1,1,6,6,4,4,5,5,3,3],"right_children":[2,6,4,14,10,12,8,-1,-1,-1,-1,-1,-1,-1,-1],"split_conditions":[3.53E2,6.413E3,5.82E2,2.4246066E0,7.1488276E0,2.99E2,5.454065E8,2.4913063E-2,-1.8015356E-1,-4.6291597E-2,2.7542764E-2,2.4629235E-2,-9.412943E-2,1.0670424E-2,1.3307346E-1],"split_indices":[14,6,14,17,17,14,4,0,0,0,0,0,0,0,0],"split_type":[0,0,0,0,0,0,0,0,0,0,0,0,0,0,0],"sum_hessian":[4.9150186E2,1.4914693E2,3.4235495E2,7.585789E1,2.6649707E2,1.1659393E2,3.255299E1,6.3960953E0,2.6156893E1,1.3152263E2,1.3497443E2,1.02266335E2,1.4327598E1,3.38949E1,4.1962986E1],"tree_param":{"num_deleted":"0","num_feature":"37","num_nodes":"15","size_leaf_vector":"1"}},{"base_weights":[-1.8811406E-5,2.6130717E-2,-1.5147986E-1,3.8104725E-1,2.5718599E-3,-2.431959E-1,1.20925196E-1,1.3130704E-1,-7.866205E-2,-1.4171386E-1,-4.6466407E-3,-3.9714668E-2,1.340544E-2,1.6215639E-1,-6.6829557E-3],"categories":[],"categories_nodes":[],"categories_segments":[],"categories_sizes":[],"default_left":[0,0,1,0,0,0,0,0,0,0,0,0,0,0,0],"id":9,"left_children":[1,3,5,13,11,9,7,-1,-1,-1,-1,-1,-1,-1,-1],"loss_changes":[2.1556392E0,3.2137356E0,2.4720225E0,1.8219972E0,2.0589476E0,2.5342832E0,3.930612E0,0E0,0E0,0E0,0E0,0E0,0E0,0E0,0E0],"parents":[2147483647,0,0,1,1,2,2,6,6,5,5,4,4,3,3],"right_children":[2,4,6,14,12,10,8,-1,-1,-1,-1,-1,-1,-1,-1],"split_conditions":[6E0,1.3599734E8,5.45082E5,2.4E1,3.467385E8,2.560204E4,8.9486E4,1.3130704E-1,-7.866205E-2,-1.4171386E-1,-4.6466407E-3,-3.9714668E-2,1.340544E-2,1.6215639E-1,-6.6829557E-3],"split_indices":[22,4,8,15,4,3,7,0,0,0,0,0,0,0,0],"split_type":[0,0,0,0,0,0,0,0,0,0,0,0,0,0,0],"sum_hessian":[4.9062384E2,4.2052133E2,7.0102516E1,1.3143865E1,4.0737747E2,5.60736E1,1.4028919E1,8.634459E0,5.3944607E0,2.2101044E1,3.3972557E1,8.485204E1,3.2252542E2,9.722955E0,3.4209094E0],"tree_param":{"num_deleted":"0","num_feature":"37","num_nodes":"15","size_leaf_vector":"1"}},{"base_weights":[-0E0,-8.7939434E-2,3.722175E-2,-0E0,-3.3479112E-1,1.9243069E-1,-2.4598923E-2,-4.620866E-2,2.2975747E-2,9.906889E-2,-5.236035E-4,-1.5287636E-1,2.5752655E-3,-2.2121923E-2,6.776193E-2],"categories":[],"categories_nodes":[],"categories_segments":[],"categories_sizes":[],"default_left":[0,0,0,0,0,0,0,0,0,0,0,0,0,0,0],"id":10,"left_children":[1,3,5,13,11,9,7,-1,-1,-1,-1,-1,-1,-1,-1],"loss_changes":[1.7230177E0,3.6284227E0,3.6027849E0,2.0933063E0,2.6382666E0,2.730031E0,3.15794E0,0E0,0E0,0E0,0E0,0E0,0E0,0E0,0E0],"parents":[2147483647,0,0,1,1,2,2,6,6,5,5,4,4,3,3],"right_children":[2,4,6,14,12,10,8,-1,-1,-1,-1,-1,-1,-1,-1],"split_conditions":[3.53E2,5.3784026E8,6.78E2,4E0,2.2E1,2E1,7.1488276E0,-4.620866E-2,2.2975747E-2,9.906889E-2,-5.236035E-4,-1.5287636E-1,2.5752655E-3,-2.2121923E-2,6.776193E-2],"split_indices":[14,10,14,15,16,18,17,0,0,0,0,0,0,0,0],"split_type":[0,0,0,0,0,0,0,0,0,0,0,0,0,0,0],"sum_hessian":[4.9020358E2,1.486407E2,3.415629E2,1.1625421E2,3.238649E1,9.528164E1,2.4628125E2,1.11992905E2,1.3428835E2,5.8543404E1,3.6738235E1,2.1860327E1,1.0526163E1,9.1494804E1,2.4759401E1],"tree_param":{"num_deleted":"0","num_feature":"37","num_nodes":"15","size_leaf_vector":"1"}},{"base_weights":[-0E0,7.61151E-2,-1.3846368E-2,-1.8846773E-1,1.742892E-2,2.0273566E-2,-5.7360455E-2,-1.1434873E-1,3.4489273E-3],"categories":[],"categories_nodes":[],"categories_segments":[],"categories_sizes":[],"default_left":[0,0,0,1,1,0,0,0,0],"id":11,"left_children":[1,-1,3,7,5,-1,-1,-1,-1],"loss_changes":[1.4751484E0,0E0,2.8656063E0,3.0715344E0,3.7851245E0,0E0,0E0,0E0,0E0],"parents":[2147483647,0,0,2,2,4,4,3,3],"right_children":[2,-1,4,8,6,-1,-1,-1,-1],"split_conditions":[1.465842E4,7.61151E-2,2.526323E4,8.0676006E8,3.0866E4,2.0273566E-2,-5.7360455E-2,-1.1434873E-1,3.4489273E-3],"split_indices":[3,0,3,10,6,0,0,0,0],"split_type":[0,0,0,0,0,0,0,0,0],"sum_hessian":[4.8919766E2,1.342366E1,4.75774E2,6.8727936E1,4.0704605E2,3.4015823E2,6.688782E1,3.5191746E1,3.3536186E1],"tree_param":{"num_deleted":"0","num_feature":"37","num_nodes":"9","size_leaf_vector":"1"}},{"base_weights":[-2.0456128E-4,-1.2225085E-2,8.5889205E-2,-1.4904779E-1,2.1259014E-2,-2.8867863E-2,2.3828637E-2,1.6775867E-2,-7.608725E-2],"categories":[],"categories_nodes":[],"categories_segments":[],"categories_sizes":[],"default_left":[0,0,0,0,0,0,0,0,0],"id":12,"left_children":[1,3,-1,7,5,-1,-1,-1,-1],"loss_changes":[1.393322E0,2.4183834E0,0E0,2.1824243E0,2.4264657E0,0E0,0E0,0E0,0E0],"parents":[2147483647,0,0,1,1,4,4,3,3],"right_children":[2,4,-1,8,6,-1,-1,-1,-1],"split_conditions":[2.00001E0,2.019E3,8.5889205E-2,6.47074E3,6E0,-2.8867863E-2,2.3828637E-2,1.6775867E-2,-7.608725E-2],"split_indices":[33,19,0,5,15,0,0,0,0],"split_type":[0,0,0,0,0,0,0,0,0],"sum_hessian":[4.8869043E2,4.8137082E2,7.3196306E0,9.305012E1,3.8832068E2,1.16918365E2,2.7140234E2,2.6379173E1,6.6670944E1],"tree_param":{"num_deleted":"0","num_feature":"37","num_nodes":"9","size_leaf_vector":"1"}},{"base_weights":[-0E0,1.11014955E-1,-2.6424045E-2,-2.649888E-1,1.8572999E-3,-1.2356188E-1,6.1460007E-2,2.5272105E-2,-2.3110105E-2,-9.3662076E-2,1.881537E-1,6.267486E-2,-1.1452342E-1,1.2998451E-1,-0E0],"categories":[],"categories_nodes":[],"categories_segments":[],"categories_sizes":[],"default_left":[0,0,0,0,1,0,0,0,0,0,0,0,0,0,0],"id":13,"left_children":[1,9,3,5,7,-1,-1,-1,-1,11,13,-1,-1,-1,-1],"loss_changes":[1.4815629E0,1.8164046E0,3.05898E0,3.6485445E0,2.222745E0,0E0,0E0,0E0,0E0,3.249992E0,3.04659E0,0E0,0E0,0E0,0E0],"parents":[2147483647,0,0,2,2,3,3,4,4,1,1,9,9,10,10],"right_children":[2,10,4,6,8,-1,-1,-1,-1,12,14,-1,-1,-1,-1],"split_conditions":[8E0,1.3445997E8,1.2E1,2.6E1,1E0,-1.2356188E-1,6.1460007E-2,2.5272105E-2,-2.3110105E-2,1E0,8.18E2,6.267486E-2,-1.1452342E-1,1.2998451E-1,-0E0],"split_indices":[16,10,16,18,34,0,0,0,0,31,6,0,0,0,0],"split_type":[0,0,0,0,0,0,0,0,0,0,0,0,0,0,0],"sum_hessian":[4.883687E2,8.5783005E1,4.025857E2,3.6657394E1,3.6592828E2,3.205577E1,4.6016254E0,1.8554095E2,1.8038733E2,1.9287199E1,6.6495804E1,8.7552E0,1.0532E1,2.4091457E1,4.240435E1],"tree_param":{"num_deleted":"0","num_feature":"37","num_nodes":"15","size_leaf_vector":"1"}},{"base_weights":[-0E0,1.16410136E-1,-2.4232304E-2,2.2987507E-1,-1.4471586E-1,-1.5566943E-3,1.2627347E-1,5.369875E-2,-1.01081446E-1,-1.3183553E-2,8.0165595E-2,1.6118011E-3,-8.5055195E-2,-1.0853509E-1,2.9676812E-2],"categories":[],"categories_nodes":[],"categories_segments":[],"categories_sizes":[],"default_left":[0,0,1,0,1,0,0,0,0,0,0,0,0,0,0],"id":14,"left_children":[1,3,7,5,13,-1,-1,9,11,-1,-1,-1,-1,-1,-1],"loss_changes":[1.4871521E0,3.1656961E0,2.611642E0,3.1481216E0,2.0623229E0,0E0,0E0,4.2145023E0,4.135583E0,0E0,0E0,0E0,0E0,0E0,0E0],"parents":[2147483647,0,0,1,1,3,3,2,2,7,7,8,8,4,4],"right_children":[2,4,8,6,14,-1,-1,10,12,-1,-1,-1,-1,-1,-1],"split_conditions":[6E0,2.022E3,1E0,1.079E3,1.3E1,-1.5566943E-3,1.2627347E-1,6.209742E4,5.537579E4,-1.3183553E-2,8.0165595E-2,1.6118011E-3,-8.5055195E-2,-1.0853509E-1,2.9676812E-2],"split_indices":[18,19,32,9,15,0,0,3,3,0,0,0,0,0,0],"split_type":[0,0,0,0,0,0,0,0,0,0,0,0,0,0,0],"sum_hessian":[4.878175E2,8.062098E1,4.071965E2,5.978787E1,2.0833109E1,2.6553585E1,3.3234283E1,1.9735959E2,2.0983691E2,1.3559721E2,6.1762383E1,1.3041173E2,7.9425186E1,1.11783495E1,9.654758E0],"tree_param":{"num_deleted":"0","num_feature":"37","num_nodes":"15","size_leaf_vector":"1"}},{"base_weights":[-0E0,2.485273E-2,-1.23756714E-1,-3.0221608E-1,2.1258781E-3,3.130857E-1,5.8264164E-3,8.2148455E-2,-2.7739727E-3,-1.2133226E-1,2.481814E-2,7.289611E-2,-3.127585E-2,1.4050388E-1,-9.190602E-3],"categories":[],"categories_nodes":[],"categories_segments":[],"categories_sizes":[],"default_left":[0,0,0,1,0,0,0,0,0,0,0,0,0,0,0],"id":15,"left_children":[1,5,3,9,11,13,7,-1,-1,-1,-1,-1,-1,-1,-1],"loss_changes":[1.4949298E0,2.0125124E0,2.1114304E0,1.6941175E0,1.6084499E0,1.5433557E0,1.7879157E0,0E0,0E0,0E0,0E0,0E0,0E0,0E0,0E0],"parents":[2147483647,0,0,2,2,1,1,6,6,3,3,4,4,5,5],"right_children":[2,6,4,10,12,14,8,-1,-1,-1,-1,-1,-1,-1,-1],"split_conditions":[6E0,1.3188657E8,9.20118E3,4.96E3,4.5936614E8,2.4E1,1.4E1,8.2148455E-2,-2.7739727E-3,-1.2133226E-1,2.481814E-2,7.289611E-2,-3.127585E-2,1.4050388E-1,-9.190602E-3],"split_indices":[22,4,1,9,4,15,23,0,0,0,0,0,0,0,0],"split_type":[0,0,0,0,0,0,0,0,0,0,0,0,0,0,0],"sum_hessian":[4.8710535E2,4.1779025E2,6.931511E1,2.5582724E1,4.3732384E1,1.2088666E1,4.0570157E2,1.5887515E1,3.8981406E2,2.3476803E1,2.1059208E0,1.2164291E1,3.156809E1,8.683353E0,3.4053128E0],"tree_param":{"num_deleted":"0","num_feature":"37","num_nodes":"15","size_leaf_vector":"1"}},{"base_weights":[2.469383E-3,6.029787E-2,-4.7694698E-2,1.8208854E-1,-8.996356E-2,-9.207161E-2,-4.819853E-3,-5.2859902E-2,1.027876E-1,-7.995881E-2,1.2407418E-1,1.0867211E-1,3.2837866E-3,2.4305431E-2,-8.186252E-2],"categories":[],"categories_nodes":[],"categories_segments":[],"categories_sizes":[],"default_left":[1,0,0,0,0,0,0,0,0,0,0,0,0,0,0],"id":16,"left_children":[1,9,3,7,5,-1,-1,-1,-1,13,11,-1,-1,-1,-1],"loss_changes":[1.4881903E0,2.3477674E0,2.6466248E0,2.715247E0,3.1087778E0,0E0,0E0,0E0,0E0,2.5452952E0,3.9746182E0,0E0,0E0,0E0,0E0],"parents":[2147483647,0,0,2,2,4,4,3,3,1,1,10,10,9,9],"right_children":[2,10,4,8,6,-1,-1,-1,-1,14,12,-1,-1,-1,-1],"split_conditions":[1E0,1E1,9.292982E-1,6.51054E3,7.7E1,-9.207161E-2,-4.819853E-3,-5.2859902E-2,1.027876E-1,6E0,1.05E2,1.0867211E-1,3.2837866E-3,2.4305431E-2,-8.186252E-2],"split_indices":[30,18,17,1,23,0,0,0,0,18,23,0,0,0,0],"split_type":[0,0,0,0,0,0,0,0,0,0,0,0,0,0,0],"sum_hessian":[4.8675793E2,2.3433365E2,2.5242429E2,2.9890127E1,2.2253415E2,4.8877785E1,1.7365637E2,5.9039783E0,2.3986149E1,6.747403E1,1.6685962E2,4.7085342E1,1.1977428E2,3.6063812E1,3.1410215E1],"tree_param":{"num_deleted":"0","num_feature":"37","num_nodes":"15","size_leaf_vector":"1"}},{"base_weights":[1.2804266E-3,1.2782121E-2,-8.69921E-2,3.0459605E-2,-1.7080933E-1,-1.2104633E-1,3.8465936E-2,6.5332593E-4,9.1703005E-2],"categories":[],"categories_nodes":[],"categories_segments":[],"categories_sizes":[],"default_left":[0,1,0,1,0,0,0,0,0],"id":17,"left_children":[1,3,-1,7,5,-1,-1,-1,-1],"loss_changes":[1.3397162E0,1.5094409E0,0E0,3.066838E0,3.160839E0,0E0,0E0,0E0,0E0],"parents":[2147483647,0,0,1,1,4,4,3,3],"right_children":[2,4,-1,8,6,-1,-1,-1,-1],"split_conditions":[6.288998E4,2.255E3,-8.69921E-2,2.039609E6,1.712691E4,-1.2104633E-1,3.8465936E-2,6.5332593E-4,9.1703005E-2],"split_indices":[0,14,0,11,0,0,0,0,0],"split_type":[0,0,0,0,0,0,0,0,0],"sum_hessian":[4.857621E2,4.797078E2,6.0543075E0,4.509126E2,2.8795185E1,1.6891577E1,1.1903608E1,4.1937177E2,3.1540842E1],"tree_param":{"num_deleted":"0","num_feature":"37","num_nodes":"9","size_leaf_vector":"1"}},{"base_weights":[-0E0,3.0252837E-2,-8.172942E-2,1.812527E-1,-1.4800538E-1,1.6585644E-2,-9.875683E-2,1.322424E-1,-4.3957748E-2,-4.1640323E-2,1.0964024E-1,8.007284E-2,-2.6252767E-2,2.284557E-2,-5.347299E-2],"categories":[],"categories_nodes":[],"categories_segments":[],"categories_sizes":[],"default_left":[0,0,0,0,0,0,0,0,0,0,0,0,0,0,0],"id":18,"left_children":[1,9,3,7,5,-1,-1,-1,-1,13,11,-1,-1,-1,-1],"loss_changes":[1.2244893E0,2.2626169E0,2.5596418E0,3.0029907E0,4.104155E0,0E0,0E0,0E0,0E0,3.0423605E0,5.465375E0,0E0,0E0,0E0,0E0],"parents":[2147483647,0,0,2,2,4,4,3,3,1,1,10,10,9,9],"right_children":[2,10,4,8,6,-1,-1,-1,-1,14,12,-1,-1,-1,-1],"split_conditions":[2.022E3,2.02E3,1E0,6E0,2.340038E4,1.6585644E-2,-9.875683E-2,1.322424E-1,-4.3957748E-2,2.02E2,3.37324E4,8.007284E-2,-2.6252767E-2,2.284557E-2,-5.347299E-2],"split_indices":[19,19,22,20,0,0,0,0,0,23,1,0,0,0,0],"split_type":[0,0,0,0,0,0,0,0,0,0,0,0,0,0,0],"sum_hessian":[4.8555618E2,3.6472147E2,1.2083472E2,1.7444347E1,1.0339037E2,4.6614777E1,5.6775597E1,1.0019741E1,7.4246054E0,1.875291E2,1.7719237E2,1.0329097E2,7.390139E1,9.695233E1,9.057677E1],"tree_param":{"num_deleted":"0","num_feature":"37","num_nodes":"15","size_leaf_vector":"1"}},{"base_weights":[-0E0,3.3149853E-2,-7.3577955E-2,-3.8278586E-1,2.2526525E-2,-4.5147255E-2,5.610182E-2,-0E0,2.668059E-1,-2.4673423E-2,1.5654953E-1,9.346749E-3,-9.7039275E-2,-1.6765788E-1,-0E0],"categories":[],"categories_nodes":[],"categories_segments":[],"categories_sizes":[],"default_left":[1,1,0,1,0,0,0,1,0,0,0,0,0,0,0],"id":19,"left_children":[1,7,3,13,5,-1,-1,11,9,-1,-1,-1,-1,-1,-1],"loss_changes":[1.2060217E0,2.7649362E0,4.9261975E0,1.8220887E0,3.373756E0,0E0,0E0,2.9632668E0,4.218648E0,0E0,0E0,0E0,0E0,0E0,0E0],"parents":[2147483647,0,0,2,2,4,4,1,1,8,8,7,7,3,3],"right_children":[2,8,4,14,6,-1,-1,12,10,-1,-1,-1,-1,-1,-1],"split_conditions":[4.8032856E0,3.96344E0,1.439724E6,1E0,4.132789E4,-4.5147255E-2,5.610182E-2,1.3E1,3E0,-2.4673423E-2,1.5654953E-1,9.346749E-3,-9.7039275E-2,-1.6765788E-1,-0E0],"split_indices":[17,17,11,36,3,0,0,15,22,0,0,0,0,0,0],"split_type":[0,0,0,0,0,0,0,0,0,0,0,0,0,0,0],"sum_hessian":[4.8470053E2,3.4524127E2,1.3945926E2,2.7754307E1,1.1170495E2,5.1188953E1,6.0515995E1,3.119005E2,3.3340767E1,1.4150513E1,1.9190252E1,2.9350177E2,1.839873E1,1.6324104E1,1.1430203E1],"tree_param":{"num_deleted":"0","num_feature":"37","num_nodes":"15","size_leaf_vector":"1"}}]},"name":"gbtree"},"learner_model_param":{"base_score":"5.152376E-1","boost_from_average":"1","num_class":"0","num_feature":"37","num_target":"1"},"objective":{"name":"binary:logistic","reg_loss_param":{"scale_pos_weight":"1"}}},"version":[2,0,0]}